genomestart 33
trait 1 0.3101097501 0.1869023325 0.3437883358 0.2174393001 0.1394111384 0.2750311229 0.1797006973 0.1628803305 
node 1 1 1 1 0.3977324747 -0.5852229377 1
node 2 1 1 3 0.2148551897 1.281386761 1
node 3 1 0 0 0.1722128971 2.332230598 0
node 4 1 0 0 0.390334788 1.393560595 1
node 10 1 0 2 0.1 -2.745970031 1
node 11 1 0 2 0.1 2.264278085 1
node 12 1 0 2 0.1295846431 1.663521226 1
node 13 1 0 0 0.4173558763 0.2080446791 1
node 14 1 0 0 0.4954893643 -0.09941099277 1
node 15 1 0 0 0.1 -0.2454481643 1
node 16 1 0 0 0.7068605609 -0.009009063997 1
node 17 1 0 0 0.7509781182 0.8105288858 1
node 18 1 0 0 0.9808374279 -1.403387555 0
node 19 1 0 0 0.8798577837 -0.04756614887 1
node 21 1 0 0 0.4156773583 -0.4131229591 1
node 22 1 0 0 0.9217719047 1.382409131 3
node 23 1 0 0 0.9548661763 -0.6102725303 3
node 24 1 0 0 0.2450727866 -0.01911069063 1
node 26 1 0 0 0.425388348 0.05158848842 1
node 27 1 0 0 0.7334788049 -0.249671926 2
node 29 1 0 0 0.5472487564 -0.03848994415 1
node 30 1 0 0 0.2808954131 0.2197882015 1
node 33 1 0 0 0.4736869411 -0.9711783197 0
node 35 1 0 0 0.6251564074 -0.4244758446 1
node 36 1 0 0 0.8889889218 0.1125827815 1
node 38 1 0 0 0.6998596149 -0.1541673025 1
node 39 1 0 0 0.8879696036 0.8385876034 1
node 40 1 0 0 0.5 0.0553788873 1
node 41 1 0 0 0.7806665242 -1.451460311 1
node 44 1 0 0 0.5677755058 0.127988525 1
node 46 1 0 0 0.312469863 -0.1785088656 1
node 47 1 0 0 0.2438093204 1.734812464 2
node 48 1 0 0 0.3182073428 -0.0911282693 1
node 50 1 0 0 0.4315469832 0.3231849116 1
node 51 1 0 0 0.6680227058 0.05058748131 2
node 53 1 0 0 1.044499039 1.505417035 1
node 57 1 0 0 0.6950498978 -0.05863826411 1
node 58 1 0 0 0.5735190893 1.965306558 2
node 60 1 0 0 0.1467482528 0.190643025 0
node 64 1 0 0 0.1 2.071913816 2
node 65 1 0 0 0.962611774 -0.0657002472 2
node 66 1 0 0 0.7083376568 1.434351634 1
node 69 1 0 0 0.101617481 1.513461715 3
node 71 1 0 0 0.7096255379 0.3770195624 1
node 72 1 0 0 1.095379498 0.9766106143 0
node 75 1 0 0 1.044431898 1.153202918 2
node 76 1 0 0 0.2423871578 1.396398816 3
node 79 1 0 0 0.2494735557 1.793566698 1
node 80 1 0 0 0.3826929533 1.579979858 0
node 82 1 0 0 0.1 1.669759209 3
node 85 1 0 0 1.182284005 -2.10588702 1
node 89 1 0 0 0.2632435072 -1.211944945 3
node 90 1 0 0 0.1456862087 1.634565264 1
node 102 1 0 0 0.5608783227 1.67965331 1
node 104 1 0 0 0.4818170721 -1.922360912 0
node 105 1 0 0 0.3649494919 0.9472457045 1
node 107 1 0 0 0.9923978393 -1.447627186 3
node 108 1 0 0 0.8647755364 -1.237830744 3
node 121 1 0 0 0.4256263924 -0.167546617 1
node 122 1 0 0 0.2676442763 -0.5684377575 3
node 123 1 0 0 0.5550431837 0.7543137913 3
node 127 1 0 0 0.4430097354 2.226679281 0
node 133 1 0 0 0.9406323435 1.163731803 2
gene 1 1 3 2.169026765 0 24 2.169026765 1
gene 1 2 3 0.991005623 0 25 0.991005623 1
gene 1 2 4 0.9266878643 0 37 0.9266878643 1
gene 1 3 4 -0.5948782311 0 38 -0.5948782311 1
gene 1 2 10 0.9563356426 0 109 0.9563356426 1
gene 1 3 10 -0.06392483291 0 110 -0.06392483291 1
gene 1 4 10 -0.2211142308 0 111 -0.2211142308 1
gene 1 1 11 -2.424439985 0 120 -2.424439985 1
gene 1 3 11 -0.9541478469 0 122 -0.9541478469 1
gene 1 4 11 -3.790261544 0 123 -3.790261544 1
gene 1 1 12 -3.527542001 0 132 -3.527542001 0
gene 1 2 12 -2.523079623 0 133 -2.523079623 0
gene 1 3 12 1.396298105 0 134 1.396298105 1
gene 1 4 12 1.074140904 0 135 1.074140904 1
gene 1 1 13 3.392330699 0 139 3.392330699 1
gene 1 13 11 -1.618656728 0 140 -1.618656728 1
gene 1 4 14 2.754165777 0 141 2.754165777 1
gene 1 14 12 2.542420728 0 142 2.542420728 1
gene 1 11 10 -1.467940306 0 145 -1.467940306 1
gene 1 1 15 3.782235176 0 146 3.782235176 1
gene 1 15 12 -0.8406323435 0 147 -0.8406323435 1
gene 1 3 16 5 0 149 5 1
gene 1 16 11 3.320616779 0 150 3.320616779 1
gene 1 4 17 3.189321574 0 151 3.189321574 0
gene 1 17 11 -1.071018097 0 152 -1.071018097 1
gene 1 3 18 2.390575884 0 154 2.390575884 1
gene 1 18 4 -1.565571688 0 155 -1.565571688 1
gene 1 1 4 -2.281861324 0 160 -2.281861324 1
gene 1 13 19 -0.4661091952 0 165 -0.4661091952 1
gene 1 19 11 2.237077166 0 166 2.237077166 1
gene 1 12 10 -1.275223548 0 171 -1.275223548 1
gene 1 11 12 1.263252663 0 181 1.263252663 1
gene 1 11 11 -0.4883877071 1 182 -0.4883877071 1
gene 1 3 21 -3.105807672 0 185 -3.105807672 1
gene 1 21 10 -2.822637104 0 186 -2.822637104 1
gene 1 11 22 2.053666799 0 187 2.053666799 1
gene 1 22 10 5 0 188 5 1
gene 1 1 23 0.4192709128 0 190 0.4192709128 1
gene 1 23 3 2.233314005 0 191 2.233314005 0
gene 1 3 24 1.63083285 0 192 1.63083285 1
gene 1 24 12 1.374172185 0 193 1.374172185 1
gene 1 10 4 -1.827524644 1 197 -1.827524644 1
gene 1 4 4 -1.43221839 1 200 -1.43221839 1
gene 1 12 12 -4.268852809 1 207 -4.268852809 1
gene 1 1 26 3.468108158 0 210 3.468108158 1
gene 1 26 4 1.266631062 0 211 1.266631062 1
gene 1 11 3 -1.528107547 1 217 -1.528107547 1
gene 1 11 27 2.975920896 1 218 2.975920896 1
gene 1 27 11 1.872344127 0 219 1.872344127 1
gene 1 13 13 -0.1116977447 1 224 -0.1116977447 1
gene 1 11 4 -1.295373394 1 230 -1.295373394 1
gene 1 11 17 2.448973052 1 238 2.448973052 1
gene 1 13 22 2.856105228 0 241 2.856105228 1
gene 1 4 13 0.0277108066 0 242 0.0277108066 1
gene 1 23 13 -1.327234718 0 243 -1.327234718 1
gene 1 13 17 -2.508087405 0 245 -2.508087405 1
gene 1 27 29 -0.8488113041 0 249 -0.8488113041 1
gene 1 29 11 -0.3118585772 0 250 -0.3118585772 1
gene 1 2 13 -2.546769616 0 252 -2.546769616 1
gene 1 3 3 1.422772912 1 259 1.422772912 1
gene 1 18 30 2.88123722 0 261 2.88123722 1
gene 1 30 4 0.9906308176 0 262 0.9906308176 1
gene 1 23 23 -1.512924589 1 266 -1.512924589 1
gene 1 19 19 -2.143436995 1 267 -2.143436995 0
gene 1 4 33 -0.1686300241 0 271 -0.1686300241 1
gene 1 33 17 0.6942228462 0 272 0.6942228462 1
gene 1 23 17 -1.93856624 0 273 -1.93856624 1
gene 1 27 17 2.471587268 0 274 2.471587268 1
gene 1 27 27 -1.674596393 1 279 -1.674596393 1
gene 1 13 35 -1.543565172 0 285 -1.543565172 1
gene 1 35 22 -0.05364238411 0 286 -0.05364238411 1
gene 1 19 29 -1.06387524 0 287 -1.06387524 1
gene 1 3 13 0.6637241737 0 289 0.6637241737 1
gene 1 4 36 0.9990081484 1 292 0.9990081484 1
gene 1 36 4 0.2100558489 0 293 0.2100558489 1
gene 1 13 12 4.254737999 0 298 4.254737999 1
gene 1 23 19 2.577028718 0 299 2.577028718 1
gene 1 2 17 2.752693258 0 306 2.752693258 0
gene 1 1 22 0.7456129643 0 307 0.7456129643 1
gene 1 12 27 2.503646962 0 308 2.503646962 1
gene 1 11 38 2.092562639 1 322 2.092562639 1
gene 1 38 4 -2.183245338 0 323 -2.183245338 1
gene 1 11 14 -0.9970397046 0 325 -0.9970397046 1
gene 1 12 39 1.880535295 1 326 1.880535295 1
gene 1 39 12 -3.002784814 0 327 -3.002784814 1
gene 1 17 4 -0.9938200018 1 331 -0.9938200018 1
gene 1 10 23 -1.146885586 1 333 -1.146885586 1
gene 1 29 4 -0.5864741966 0 335 -0.5864741966 1
gene 1 27 40 0.7865993225 0 338 0.7865993225 1
gene 1 40 29 -1.186556597 0 339 -1.186556597 1
gene 1 12 41 -4.193777276 1 342 -4.193777276 1
gene 1 41 39 2.158958708 0 343 2.158958708 0
gene 1 1 36 1.716513565 0 347 1.716513565 1
gene 1 39 44 1.322290719 0 358 1.322290719 1
gene 1 44 12 0.3503524888 0 359 0.3503524888 1
gene 1 1 19 -0.9382457961 0 360 -0.9382457961 1
gene 1 36 13 0.6689657277 0 361 0.6689657277 1
gene 1 3 27 -1.184835353 0 362 -1.184835353 1
gene 1 12 46 2.166341136 0 368 2.166341136 1
gene 1 46 27 -0.7181279946 0 369 -0.7181279946 1
gene 1 17 17 -0.9328287606 1 370 -0.9328287606 1
gene 1 3 47 2.828592792 0 371 2.828592792 1
gene 1 47 13 -1.991848506 0 372 -1.991848506 1
gene 1 11 48 1.048677023 1 374 1.048677023 1
gene 1 48 27 0.3573747978 0 375 0.3573747978 1
gene 1 10 17 -2.889065218 0 376 -2.889065218 1
gene 1 21 50 0.002807702872 0 382 0.002807702872 1
gene 1 50 10 2.572862941 0 383 2.572862941 1
gene 1 1 51 1.635242775 0 386 1.635242775 0
gene 1 51 13 2.504351939 0 387 2.504351939 1
gene 1 17 36 0.1501205481 1 395 0.1501205481 1
gene 1 12 29 -0.6174962615 1 396 -0.6174962615 1
gene 1 17 13 0.001113925596 1 399 0.001113925596 1
gene 1 4 53 3.480086673 1 406 3.480086673 1
gene 1 53 36 -1.960734886 0 407 -1.960734886 1
gene 1 47 47 0.9820398572 1 417 0.9820398572 1
gene 1 29 29 -3.051454207 1 418 -3.051454207 1
gene 1 12 33 0.8025757622 0 421 0.8025757622 1
gene 1 41 57 2.642048402 0 425 2.642048402 1
gene 1 57 39 -1.468526872 0 426 -1.468526872 1
gene 1 27 23 -1.64476455 1 427 -1.64476455 1
gene 1 4 15 0.2150944548 0 429 0.2150944548 1
gene 1 13 3 -1.872066408 1 430 -1.872066408 1
gene 1 10 29 1.007003998 1 431 1.007003998 1
gene 1 10 10 -2.196874905 1 434 -2.196874905 1
gene 1 10 16 1.497695853 0 435 1.497695853 1
gene 1 23 58 0.1453291421 1 436 0.1453291421 1
gene 1 58 23 -1.844697409 0 437 -1.844697409 1
gene 1 41 41 2.391415143 1 440 2.391415143 1
gene 1 12 21 1.065630055 0 441 1.065630055 1
gene 1 14 60 -3.360103153 0 442 -3.360103153 1
gene 1 60 12 3.368423261 0 443 3.368423261 1
gene 1 14 14 1.227805414 1 445 1.227805414 1
gene 1 21 21 1.542832728 1 446 1.542832728 1
gene 1 53 13 -2.335718863 0 449 -2.335718863 1
gene 1 60 60 -0.9204077273 1 450 -0.9204077273 1
gene 1 13 27 0.02552873318 1 451 0.02552873318 1
gene 1 22 22 1.545808283 1 455 1.545808283 1
gene 1 4 47 -1.295175024 0 458 -1.295175024 1
gene 1 53 4 -2.176717429 0 459 -2.176717429 1
gene 1 1 29 2.26085696 0 460 2.26085696 1
gene 1 19 10 0.6586352123 0 461 0.6586352123 1
gene 1 10 41 -1.228003784 0 462 -1.228003784 1
gene 1 16 14 2.0110477 0 463 2.0110477 1
gene 1 51 4 -2.58046205 0 470 -2.58046205 1
gene 1 41 22 5 0 472 5 1
gene 1 60 64 5 1 474 5 1
gene 1 64 60 1.95897702 0 475 1.95897702 1
gene 1 15 65 -1.78725547 0 476 -1.78725547 1
gene 1 65 12 -2.609797967 0 477 -2.609797967 1
gene 1 2 60 -3.903241066 0 480 -3.903241066 1
gene 1 51 51 -0.9796899319 1 481 -0.9796899319 1
gene 1 3 66 3.294305246 0 485 3.294305246 1
gene 1 66 27 -1.030649739 0 486 -1.030649739 1
gene 1 36 36 -0.6884975738 1 487 -0.6884975738 1
gene 1 15 69 2.430478835 0 498 2.430478835 1
gene 1 69 65 -1.311194189 0 499 -1.311194189 1
gene 1 10 36 1.656163213 1 502 1.656163213 1
gene 1 33 33 0.8435621204 1 507 0.8435621204 1
gene 1 1 17 2.216376232 0 511 2.216376232 1
gene 1 16 71 -0.4080324717 0 513 -0.4080324717 1
gene 1 71 14 -0.4987487411 0 514 -0.4987487411 1
gene 1 57 57 -2.623996704 1 516 -2.623996704 1
gene 1 35 35 0.4718161565 1 519 0.4718161565 1
gene 1 11 50 -1.327463607 0 522 -1.327463607 1
gene 1 17 72 2.333887753 1 523 2.333887753 1
gene 1 72 13 -2.475823237 0 524 -2.475823237 1
gene 1 12 75 0.48484756 0 529 0.48484756 1
gene 1 75 46 0.716196173 0 530 0.716196173 1
gene 1 12 76 -1.441557054 1 531 -1.441557054 1
gene 1 76 29 -0.4351115452 0 532 -0.4351115452 1
gene 1 2 19 -1.183263649 0 535 -1.183263649 1
gene 1 4 26 1.972197638 1 541 1.972197638 1
gene 1 13 79 1.420773949 0 544 1.420773949 1
gene 1 79 12 -4.396162297 0 545 -4.396162297 1
gene 1 10 80 1.134281442 1 546 1.134281442 1
gene 1 80 23 2.022370067 0 547 2.022370067 1
gene 1 2 53 1.018326365 0 548 1.018326365 1
gene 1 58 58 2.875133518 1 556 2.875133518 1
gene 1 10 82 -2.196111942 0 558 -2.196111942 1
gene 1 82 41 0.1960814234 0 559 0.1960814234 1
gene 1 53 51 -0.7120426038 0 561 -0.7120426038 1
gene 1 12 58 2.366847743 1 563 2.366847743 1
gene 1 50 69 2.912533952 0 568 2.912533952 0
gene 1 51 85 2.088595233 1 577 2.088595233 1
gene 1 85 51 0.2280587176 0 578 0.2280587176 1
gene 1 3 76 -1.929883724 0 587 -1.929883724 1
gene 1 76 76 -1.104647969 1 591 -1.104647969 1
gene 1 2 47 1.990203558 0 593 1.990203558 1
gene 1 36 46 1.876415296 0 595 1.876415296 1
gene 1 12 36 -0.980712302 1 598 -0.980712302 1
gene 1 12 89 0.797051912 0 604 0.797051912 1
gene 1 89 13 -0.1508835108 0 605 -0.1508835108 1
gene 1 26 29 -2.490096744 0 612 -2.490096744 1
gene 1 46 46 -1.28153325 1 615 -1.28153325 1
gene 1 40 40 0.2763603626 1 621 0.2763603626 1
gene 1 11 36 1.145115513 1 623 1.145115513 1
gene 1 1 90 1.22644734 0 626 1.22644734 1
gene 1 90 17 -1.814120914 0 627 -1.814120914 1
gene 1 57 12 3.671224097 0 635 3.671224097 1
gene 1 69 57 1.05752739 0 668 1.05752739 1
gene 1 23 102 2.519135105 0 674 2.519135105 1
gene 1 102 19 -0.09609668264 0 675 -0.09609668264 1
gene 1 19 27 2.892681661 1 680 2.892681661 1
gene 1 27 104 1.275811029 1 681 1.275811029 1
gene 1 104 27 -1.295898312 0 682 -1.295898312 1
gene 1 47 26 0.528092288 1 685 0.528092288 1
gene 1 72 72 -1.879360332 1 686 -1.879360332 1
gene 1 39 39 0.3022095401 1 689 0.3022095401 1
gene 1 17 105 -1.02764977 1 696 -1.02764977 1
gene 1 105 4 0.8283150731 0 697 0.8283150731 1
gene 1 1 107 -0.9385357219 0 705 -0.9385357219 1
gene 1 107 51 0.3 0 706 0.3 1
gene 1 27 108 0.4207739494 0 707 0.4207739494 1
gene 1 108 40 0.3 0 708 0.3 1
gene 1 23 29 -1.639912107 0 726 -1.639912107 1
gene 1 89 89 0.9811700797 1 734 0.9811700797 1
gene 1 44 65 -0.1802117985 0 746 -0.1802117985 1
gene 1 26 26 -2.142017884 1 753 -2.142017884 1
gene 1 35 21 1.109179968 0 758 1.109179968 1
gene 1 44 64 0.7360759301 0 759 0.7360759301 1
gene 1 26 121 1 0 777 1 1
gene 1 121 4 1.389312723 0 778 1.389312723 1
gene 1 48 48 0.8682515946 1 779 0.8682515946 1
gene 1 104 104 -1.564302499 1 783 -1.564302499 1
gene 1 69 122 1.262916959 0 786 1.262916959 1
gene 1 122 57 -0.5697622608 0 787 -0.5697622608 1
gene 1 15 123 -2.396008179 0 789 -2.396008179 1
gene 1 123 69 -4.29586169 0 790 -4.29586169 1
gene 1 30 57 0.9611346782 0 793 0.9611346782 1
gene 1 90 90 0.001647999512 1 796 0.001647999512 1
gene 1 3 82 -0.02502517777 0 817 -0.02502517777 1
gene 1 53 127 -1.758247627 0 822 -1.758247627 1
gene 1 127 4 -0.09441206091 0 823 -0.09441206091 1
gene 1 104 26 -2.840128788 0 828 -2.840128788 1
gene 1 108 108 -2.500488296 1 833 -2.500488296 1
gene 1 66 48 0.5343028047 0 835 0.5343028047 1
gene 1 90 33 -0.05908383435 0 844 -0.05908383435 1
gene 1 30 30 -0.7528153325 1 858 -0.7528153325 1
gene 1 85 27 0.173055208 0 864 0.173055208 1
gene 1 10 133 1 0 872 1 1
gene 1 133 82 -0.3399075289 0 873 -0.3399075289 1
gene 1 80 80 0.3779107028 1 874 0.3779107028 1
gene 1 44 44 -0.578768273 1 875 -0.578768273 1
gene 1 102 102 -0.8286996063 1 876 -0.8286996063 1
gene 1 76 107 -2.968001343 0 884 -2.968001343 1
gene 1 24 16 0.2274086734 0 886 0.2274086734 1
gene 1 11 23 -1.358836634 1 891 -1.358836634 1
gene 1 48 53 0.1265602588 0 892 0.1265602588 1
gene 1 85 85 1.828043458 1 906 1.828043458 1
gene 1 3 26 0.1466719565 0 926 0.1466719565 1
gene 1 3 107 -1.330820643 0 927 -1.330820643 1
gene 1 18 18 1.716818751 1 928 1.716818751 1
gene 1 122 122 -1.773583178 1 942 -1.773583178 1
gene 1 15 13 0.1742606891 0 944 0.1742606891 1
genomeend 33
