genomestart 49
trait 1 0.4780166593 0.1707999788 0.3949591015 0.3357873904 0.05699522385 0.2155977718 0.1184916894 0 
node 1 1 1 1 0.1 0.2200994903 1
node 2 1 1 3 0.1 1.175231178 1
node 3 1 0 0 0.2592455824 2.557664724 0
node 4 1 0 0 0.1712240974 1.448878445 1
node 10 1 0 2 0.2944761498 -2.442567217 1
node 11 1 0 2 0.1679342021 2.615448469 1
node 12 1 0 2 0.2199255348 1.637781915 1
node 13 1 0 0 0.4619312113 0.2080446791 1
node 14 1 0 0 0.5504409925 0.05064241462 1
node 15 1 0 0 0.2110202338 -0.252967925 1
node 16 1 0 0 0.9026856288 -0.1337260048 1
node 18 1 0 0 1.074846644 -1.521921445 0
node 21 1 0 0 0.3453382977 -0.163206885 1
node 22 1 0 0 0.9432752464 1.544157231 3
node 24 1 0 0 0.3135868404 -0.3143955809 1
node 30 1 0 0 0.3979216895 -0.07002777184 1
node 35 1 0 0 0.5242683187 -0.4002685629 1
node 39 1 0 0 0.7122318186 0.8385876034 1
node 41 1 0 0 0.5990020447 -1.451460311 1
node 44 1 0 0 0.1236030152 0 1
node 50 1 0 0 0.1008789331 0.2472853786 1
node 57 1 0 0 0.5433240761 -0.1201086459 1
node 60 1 0 0 0.1 0.3089815973 0
node 64 1 0 0 0.1607318339 2.071913816 2
node 65 1 0 0 0.8216162603 -0.1086642048 2
node 69 1 0 0 0.2381389813 1.635511338 3
node 71 1 0 0 0.3744346446 0.3463118381 1
node 79 1 0 0 0.4026520585 1.793633839 1
node 82 1 0 0 0.1 1.671956542 3
gene 1 1 3 -0.7203131199 0 24 -0.7203131199 1
gene 1 2 3 4.345059435 0 25 4.345059435 1
gene 1 2 4 0.2587607196 0 37 0.2587607196 1
gene 1 3 4 -2.068010498 0 38 -2.068010498 1
gene 1 2 10 -2.417981506 0 109 -2.417981506 1
gene 1 3 10 -3.197874386 0 110 -3.197874386 1
gene 1 4 10 1.600146489 0 111 1.600146489 1
gene 1 1 11 1.550111393 0 120 1.550111393 1
gene 1 3 11 -1.778134251 0 122 -1.778134251 1
gene 1 4 11 -1.730094302 0 123 -1.730094302 1
gene 1 1 12 -0.9068250832 0 132 -0.9068250832 1
gene 1 2 12 -5 0 133 -5 1
gene 1 3 12 -3.191778314 0 134 -3.191778314 1
gene 1 4 12 3.537629322 0 135 3.537629322 1
gene 1 1 13 -0.283333842 0 139 -0.283333842 1
gene 1 13 11 -1.503511917 0 140 -1.503511917 1
gene 1 4 14 0.63984344 0 141 0.63984344 1
gene 1 14 12 1.052278207 0 142 1.052278207 1
gene 1 11 10 -1.926175726 0 145 -1.926175726 1
gene 1 1 15 1.342738121 0 146 1.342738121 1
gene 1 15 12 -4.119388409 0 147 -4.119388409 1
gene 1 3 16 2.574312571 0 149 2.574312571 1
gene 1 16 11 1.179361858 0 150 1.179361858 1
gene 1 3 18 -1.122333445 0 154 -1.122333445 1
gene 1 18 4 0.5844294565 0 155 0.5844294565 1
gene 1 1 4 -0.5514999847 0 160 0 1
gene 1 12 10 0.5429548021 0 171 0.5429548021 1
gene 1 11 12 3.489120151 0 181 3.489120151 1
gene 1 3 21 -0.2295907468 0 185 -0.2295907468 1
gene 1 21 10 -2.310994293 0 186 -2.310994293 1
gene 1 11 22 1.296578875 0 187 1.296578875 1
gene 1 22 10 4.303567614 0 188 4.303567614 1
gene 1 3 24 5 0 192 5 1
gene 1 24 12 0.756859035 0 193 0.756859035 1
gene 1 12 12 -2.819223609 1 207 -2.819223609 1
gene 1 13 13 -1.725821711 1 226 -1.725821711 1
gene 1 13 22 3.615710929 0 241 3.615710929 1
gene 1 2 13 -2.122180853 0 252 -2.122180853 1
gene 1 3 3 -1.063951537 1 259 -1.063951537 1
gene 1 18 30 1 0 261 0 1
gene 1 30 4 0.1753288369 0 262 0 1
gene 1 13 35 0.1943876461 0 285 0.1943876461 1
gene 1 35 22 0.8701528977 0 286 0.8701528977 1
gene 1 3 13 0.3060090945 0 289 0 1
gene 1 13 12 5 0 298 5 1
gene 1 1 22 2.015259255 0 307 2.015259255 1
gene 1 11 14 2.280800806 0 325 2.280800806 1
gene 1 12 39 2.411633656 1 326 2.411633656 1
gene 1 39 12 -3.581415754 0 327 -3.581415754 1
gene 1 12 41 -0.9681997131 1 342 -0.9681997131 1
gene 1 41 39 1.151084933 0 343 1.151084933 0
gene 1 39 44 0.1767021699 0 358 0.1767021699 1
gene 1 44 12 0.2214880825 0 359 0.2214880825 1
gene 1 21 50 0.4180883206 0 382 0.4180883206 1
gene 1 50 10 0.9616382336 0 383 0.9616382336 1
gene 1 41 57 2.485793634 0 425 2.485793634 1
gene 1 57 39 1.770555132 0 426 1.770555132 1
gene 1 4 15 1.176961577 0 429 1.176961577 1
gene 1 10 10 -1.873836482 1 434 -1.873836482 1
gene 1 10 16 0.6538590655 0 435 0.6538590655 1
gene 1 41 41 2.664708396 1 440 2.664708396 1
gene 1 12 21 1.457182531 0 441 1.457182531 1
gene 1 14 60 -0.9203009125 0 442 -0.9203009125 1
gene 1 60 12 0.4925115207 0 443 0.4925115207 1
gene 1 14 14 1.33538316 1 445 1.33538316 1
gene 1 21 21 -1.009506516 1 446 -1.009506516 1
gene 1 60 60 -0.4173863948 1 450 -0.4173863948 1
gene 1 22 22 0.394573809 1 455 0.394573809 1
gene 1 10 41 0.1336558123 0 462 0.1336558123 1
gene 1 16 14 2.414502396 0 463 2.414502396 1
gene 1 41 22 1.705298013 0 472 1.705298013 1
gene 1 4 4 -1.55713065 1 473 -1.55713065 1
gene 1 60 64 5 1 474 5 1
gene 1 64 60 0.8785454878 0 475 0.8785454878 1
gene 1 15 65 -2.116855373 0 476 -2.116855373 1
gene 1 65 12 -2.446676534 0 477 -2.446676534 1
gene 1 2 60 -4.885784478 0 480 -4.885784478 1
gene 1 15 69 1 0 498 1 1
gene 1 69 65 -0.6350566118 0 499 0 1
gene 1 16 71 -0.1461836604 0 513 -0.1461836604 1
gene 1 71 14 0.1625873592 0 514 0.1625873592 1
gene 1 57 57 0.8449659719 1 516 0.8449659719 1
gene 1 35 35 -1.763893551 1 519 -1.763893551 1
gene 1 11 50 0.4124729148 0 522 0.4124729148 1
gene 1 13 79 2.274300363 0 544 2.274300363 1
gene 1 79 12 -1.077655873 0 545 -1.077655873 1
gene 1 10 82 -1.923963134 0 558 -1.923963134 1
gene 1 82 41 0.4004791406 0 559 0.4004791406 1
gene 1 50 69 -0.5469679861 0 568 -0.5469679861 1
gene 1 57 12 0.5051118503 0 635 0.5051118503 1
gene 1 69 57 -0.4462721641 0 668 -0.4462721641 1
gene 1 39 39 -0.03067110202 1 689 -0.03067110202 1
genomeend 49
/* Novelty: -431602080 Fitness: 12.66912079 Generation: 0 Indiv: 8649 */
/* Point: */
genomestart 38
trait 1 0.4780166593 0.1707999788 0.3949591015 0.3357873904 0.05699522385 0.2155977718 0.1184916894 0 
node 1 1 1 1 0.1 0.03654896695 1
node 2 1 1 3 0.1 1.175231178 1
node 3 1 0 0 0.1486770226 2.332230598 0
node 4 1 0 0 0.1712240974 1.448878445 1
node 10 1 0 2 0.2944761498 -2.442567217 1
node 11 1 0 2 0.199734489 2.519083224 1
node 12 1 0 2 0.2018646809 1.681960509 1
node 13 1 0 0 0.3226569414 0.08816797388 1
node 14 1 0 0 0.5504409925 -0.09812921537 1
node 15 1 0 0 0.2110202338 -0.252967925 1
node 16 1 0 0 0.8681508835 -0.1337260048 1
node 18 1 0 0 1.074846644 -1.521921445 0
node 21 1 0 0 0.4156773583 -0.2635395367 1
node 22 1 0 0 0.9432752464 1.544157231 3
node 24 1 0 0 0.40610065 -0.3143955809 1
node 30 1 0 0 0.3757347331 0.09730521561 1
node 35 1 0 0 0.5242683187 -0.3306619465 1
node 39 1 0 0 0.7122318186 0.8385876034 1
node 41 1 0 0 0.5259529405 -1.451460311 1
node 44 1 0 0 0.3041505173 0 1
node 50 1 0 0 0.1008789331 0.06919156468 1
node 57 1 0 0 0.832084109 -0.1201086459 1
node 60 1 0 0 0.114209418 0.3089815973 0
node 64 1 0 0 0.1607318339 2.071913816 2
node 65 1 0 0 0.7600543229 -0.1086642048 2
node 69 1 0 0 0.2381389813 1.568218024 3
node 71 1 0 0 0.3744346446 0.3463118381 1
node 79 1 0 0 0.3019104587 1.793633839 1
node 82 1 0 0 0.1 1.671956542 3
gene 1 1 3 -0.7203131199 0 24 -0.7203131199 1
gene 1 2 3 4.345059435 0 25 4.345059435 1
gene 1 2 4 0.2587607196 0 37 0.2587607196 1
gene 1 3 4 -2.068010498 0 38 -2.068010498 1
gene 1 2 10 -2.417981506 0 109 -2.417981506 1
gene 1 3 10 -3.197874386 0 110 -3.197874386 1
gene 1 4 10 1.600146489 0 111 1.600146489 1
gene 1 1 11 1.550111393 0 120 1.550111393 1
gene 1 3 11 -1.778134251 0 122 -1.778134251 0
gene 1 4 11 -1.730094302 0 123 -1.730094302 1
gene 1 1 12 -0.9068250832 0 132 -0.9068250832 1
gene 1 2 12 -5 0 133 -5 1
gene 1 3 12 -3.191778314 0 134 -3.191778314 1
gene 1 4 12 3.537629322 0 135 3.537629322 1
gene 1 1 13 -0.283333842 0 139 -0.283333842 1
gene 1 13 11 -1.503511917 0 140 -1.503511917 1
gene 1 4 14 0.63984344 0 141 0.63984344 1
gene 1 14 12 1.052278207 0 142 1.052278207 1
gene 1 11 10 -1.926175726 0 145 -1.926175726 1
gene 1 1 15 1.342738121 0 146 1.342738121 1
gene 1 15 12 -4.119388409 0 147 -4.119388409 1
gene 1 3 16 2.574312571 0 149 2.574312571 1
gene 1 16 11 1.179361858 0 150 1.179361858 1
gene 1 3 18 -1.122333445 0 154 -1.122333445 1
gene 1 18 4 0.5844294565 0 155 0.5844294565 1
gene 1 1 4 -0.5514999847 0 160 0 1
gene 1 12 10 0.5429548021 0 171 0.5429548021 1
gene 1 11 12 3.489120151 0 181 3.489120151 1
gene 1 3 21 -0.2295907468 0 185 -0.2295907468 1
gene 1 21 10 -2.310994293 0 186 -2.310994293 1
gene 1 11 22 1.296578875 0 187 1.296578875 1
gene 1 22 10 4.303567614 0 188 4.303567614 1
gene 1 3 24 5 0 192 5 1
gene 1 24 12 0.756859035 0 193 0.756859035 1
gene 1 12 12 -2.819223609 1 207 -2.819223609 1
gene 1 13 13 -1.725821711 1 226 -1.725821711 1
gene 1 13 22 3.615710929 0 241 3.615710929 1
gene 1 2 13 -2.122180853 0 252 -2.122180853 1
gene 1 3 3 -1.063951537 1 259 -1.063951537 1
gene 1 18 30 1 0 261 0 1
gene 1 30 4 0.1753288369 0 262 0 1
gene 1 13 35 0.1943876461 0 285 0.1943876461 1
gene 1 35 22 0.8701528977 0 286 0.8701528977 1
gene 1 3 13 0.3060090945 0 289 0 1
gene 1 13 12 5 0 298 5 1
gene 1 1 22 2.015259255 0 307 2.015259255 1
gene 1 11 14 2.280800806 0 325 2.280800806 1
gene 1 12 39 2.411633656 1 326 2.411633656 1
gene 1 39 12 -3.581415754 0 327 -3.581415754 1
gene 1 12 41 -0.9681997131 1 342 -0.9681997131 1
gene 1 41 39 1.151084933 0 343 1.151084933 0
gene 1 39 44 0.1767021699 0 358 0.1767021699 1
gene 1 44 12 0.2214880825 0 359 0.2214880825 1
gene 1 21 50 0.4180883206 0 382 0.4180883206 1
gene 1 50 10 0.9616382336 0 383 0.9616382336 1
gene 1 41 57 2.485793634 0 425 2.485793634 1
gene 1 57 39 1.770555132 0 426 1.770555132 1
gene 1 4 15 1.176961577 0 429 1.176961577 1
gene 1 10 10 -1.873836482 1 434 -1.873836482 1
gene 1 10 16 0.6538590655 0 435 0.6538590655 1
gene 1 41 41 2.664708396 1 440 2.664708396 1
gene 1 12 21 1.457182531 0 441 1.457182531 1
gene 1 14 60 -0.9203009125 0 442 -0.9203009125 1
gene 1 60 12 0.4925115207 0 443 0.4925115207 1
gene 1 14 14 1.33538316 1 445 1.33538316 1
gene 1 21 21 -1.009506516 1 446 -1.009506516 1
gene 1 60 60 -0.4173863948 1 450 -0.4173863948 1
gene 1 22 22 0.394573809 1 455 0.394573809 1
gene 1 10 41 0.1336558123 0 462 0.1336558123 1
gene 1 16 14 2.414502396 0 463 2.414502396 1
gene 1 41 22 1.705298013 0 472 1.705298013 1
gene 1 4 4 -1.55713065 1 473 -1.55713065 1
gene 1 60 64 5 1 474 5 1
gene 1 64 60 0.8785454878 0 475 0.8785454878 1
gene 1 15 65 -2.116855373 0 476 -2.116855373 1
gene 1 65 12 -2.446676534 0 477 -2.446676534 1
gene 1 2 60 -4.885784478 0 480 -4.885784478 1
gene 1 15 69 1 0 498 1 1
gene 1 69 65 -0.6350566118 0 499 0 1
gene 1 16 71 -0.1461836604 0 513 -0.1461836604 1
gene 1 71 14 0.1625873592 0 514 0.1625873592 1
gene 1 57 57 0.8449659719 1 516 0.8449659719 1
gene 1 35 35 -1.763893551 1 519 -1.763893551 1
gene 1 11 50 0.4124729148 0 522 0.4124729148 1
gene 1 13 79 2.274300363 0 544 2.274300363 1
gene 1 79 12 -1.077655873 0 545 -1.077655873 1
gene 1 10 82 -1.923963134 0 558 -1.923963134 1
gene 1 82 41 0.4004791406 0 559 0.4004791406 1
gene 1 50 69 -0.5469679861 0 568 -0.5469679861 1
gene 1 57 12 0.5051118503 0 635 0.5051118503 1
gene 1 69 57 -0.4462721641 0 668 -0.4462721641 1
gene 1 39 39 -0.03067110202 1 689 -0.03067110202 1
genomeend 38
/* Novelty: -431602080 Fitness: 12.66912079 Generation: 0 Indiv: 8588 */
/* Point: */
genomestart 36
trait 1 0.4780166593 0.1707999788 0.3949591015 0.3357873904 0.05699522385 0.2155977718 0.1184916894 0 
node 1 1 1 1 0.1 0.03654896695 1
node 2 1 1 3 0.1 1.175231178 1
node 3 1 0 0 0.1486770226 2.471999268 0
node 4 1 0 0 0.1712240974 1.448878445 1
node 10 1 0 2 0.2944761498 -2.442567217 1
node 11 1 0 2 0.1679342021 2.519083224 1
node 12 1 0 2 0.2018646809 1.673909726 1
node 13 1 0 0 0.3226569414 0.08816797388 1
node 14 1 0 0 0.5504409925 -0.09812921537 1
node 15 1 0 0 0.2110202338 -0.252967925 1
node 16 1 0 0 0.7279366436 -0.1337260048 1
node 18 1 0 0 1.074846644 -1.521921445 0
node 21 1 0 0 0.5779931028 -0.2635395367 1
node 22 1 0 0 0.9432752464 1.544157231 3
node 24 1 0 0 0.3135868404 -0.3143955809 1
node 30 1 0 0 0.3757347331 0.09730521561 1
node 35 1 0 0 0.5 -0.1785882138 1
node 39 1 0 0 0.7122318186 0.8385876034 1
node 41 1 0 0 0.5183904538 -1.451460311 1
node 44 1 0 0 0.3041505173 0 1
node 50 1 0 0 0.2488876003 0.06919156468 1
node 57 1 0 0 0.6950498978 -0.1201086459 1
node 60 1 0 0 0.114209418 0.3089815973 0
node 64 1 0 0 0.1607318339 2.146549883 2
node 65 1 0 0 0.7600543229 -0.03210547197 2
node 69 1 0 0 0.2381389813 1.767345195 3
node 71 1 0 0 0.5674153874 0.3463118381 1
node 79 1 0 0 0.3019104587 1.793633839 1
node 82 1 0 0 0.1 1.671956542 3
gene 1 1 3 -0.7203131199 0 24 -0.7203131199 1
gene 1 2 3 4.345059435 0 25 4.345059435 1
gene 1 2 4 0.2587607196 0 37 0.2587607196 1
gene 1 3 4 -2.068010498 0 38 -2.068010498 1
gene 1 2 10 -2.417981506 0 109 -2.417981506 1
gene 1 3 10 -3.197874386 0 110 -3.197874386 1
gene 1 4 10 1.600146489 0 111 1.600146489 1
gene 1 1 11 1.550111393 0 120 1.550111393 1
gene 1 3 11 -1.778134251 0 122 -1.778134251 0
gene 1 4 11 -1.730094302 0 123 -1.730094302 1
gene 1 1 12 -0.9068250832 0 132 -0.9068250832 1
gene 1 2 12 -5 0 133 -5 1
gene 1 3 12 -3.191778314 0 134 -3.191778314 1
gene 1 4 12 3.537629322 0 135 3.537629322 1
gene 1 1 13 -0.283333842 0 139 -0.283333842 1
gene 1 13 11 -1.503511917 0 140 -1.503511917 1
gene 1 4 14 0.63984344 0 141 0.63984344 1
gene 1 14 12 1.052278207 0 142 1.052278207 1
gene 1 11 10 -1.926175726 0 145 -1.926175726 1
gene 1 1 15 1.342738121 0 146 1.342738121 1
gene 1 15 12 -4.119388409 0 147 -4.119388409 1
gene 1 3 16 2.574312571 0 149 2.574312571 1
gene 1 16 11 1.179361858 0 150 1.179361858 1
gene 1 3 18 -1.122333445 0 154 -1.122333445 1
gene 1 18 4 0.5844294565 0 155 0.5844294565 1
gene 1 1 4 -0.5514999847 0 160 0 1
gene 1 12 10 0.5429548021 0 171 0.5429548021 1
gene 1 11 12 3.489120151 0 181 3.489120151 1
gene 1 3 21 -0.2295907468 0 185 -0.2295907468 1
gene 1 21 10 -2.310994293 0 186 -2.310994293 1
gene 1 11 22 1.296578875 0 187 1.296578875 1
gene 1 22 10 4.303567614 0 188 4.303567614 1
gene 1 3 24 5 0 192 5 1
gene 1 24 12 0.756859035 0 193 0.756859035 1
gene 1 12 12 -2.819223609 1 207 -2.819223609 1
gene 1 13 13 -1.725821711 1 226 -1.725821711 1
gene 1 13 22 3.615710929 0 241 3.615710929 1
gene 1 2 13 -2.122180853 0 252 -2.122180853 1
gene 1 3 3 -1.063951537 1 259 -1.063951537 1
gene 1 18 30 1 0 261 0 1
gene 1 30 4 0.1753288369 0 262 0 1
gene 1 13 35 0.1943876461 0 285 0.1943876461 1
gene 1 35 22 0.8701528977 0 286 0.8701528977 1
gene 1 3 13 0.3060090945 0 289 0 1
gene 1 13 12 5 0 298 5 1
gene 1 1 22 2.015259255 0 307 2.015259255 1
gene 1 11 14 2.280800806 0 325 2.280800806 1
gene 1 12 39 2.411633656 1 326 2.411633656 1
gene 1 39 12 -3.581415754 0 327 -3.581415754 1
gene 1 12 41 -0.9681997131 1 342 -0.9681997131 1
gene 1 41 39 1.151084933 0 343 1.151084933 0
gene 1 39 44 0.1767021699 0 358 0.1767021699 1
gene 1 44 12 0.2214880825 0 359 0.2214880825 1
gene 1 21 50 0.4180883206 0 382 0.4180883206 1
gene 1 50 10 0.9616382336 0 383 0.9616382336 1
gene 1 41 57 2.485793634 0 425 2.485793634 1
gene 1 57 39 1.770555132 0 426 1.770555132 1
gene 1 4 15 1.176961577 0 429 1.176961577 1
gene 1 10 10 -1.873836482 1 434 -1.873836482 1
gene 1 10 16 0.6538590655 0 435 0.6538590655 1
gene 1 41 41 2.664708396 1 440 2.664708396 1
gene 1 12 21 1.457182531 0 441 1.457182531 1
gene 1 14 60 -0.9203009125 0 442 -0.9203009125 1
gene 1 60 12 0.4925115207 0 443 0.4925115207 1
gene 1 14 14 1.33538316 1 445 1.33538316 1
gene 1 21 21 -1.009506516 1 446 -1.009506516 1
gene 1 60 60 -0.4173863948 1 450 -0.4173863948 1
gene 1 22 22 0.394573809 1 455 0.394573809 1
gene 1 10 41 0.1336558123 0 462 0.1336558123 1
gene 1 16 14 2.414502396 0 463 2.414502396 1
gene 1 41 22 1.705298013 0 472 1.705298013 1
gene 1 4 4 -1.55713065 1 473 -1.55713065 1
gene 1 60 64 5 1 474 5 1
gene 1 64 60 0.8785454878 0 475 0.8785454878 1
gene 1 15 65 -2.116855373 0 476 -2.116855373 1
gene 1 65 12 -2.446676534 0 477 -2.446676534 1
gene 1 2 60 -4.885784478 0 480 -4.885784478 1
gene 1 15 69 1 0 498 1 1
gene 1 69 65 -0.6350566118 0 499 0 1
gene 1 16 71 -0.1461836604 0 513 -0.1461836604 1
gene 1 71 14 0.1625873592 0 514 0.1625873592 1
gene 1 57 57 0.8449659719 1 516 0.8449659719 1
gene 1 35 35 -1.763893551 1 519 -1.763893551 1
gene 1 11 50 0.4124729148 0 522 0.4124729148 1
gene 1 13 79 2.274300363 0 544 2.274300363 1
gene 1 79 12 -1.077655873 0 545 -1.077655873 1
gene 1 10 82 -1.923963134 0 558 -1.923963134 1
gene 1 82 41 0.4004791406 0 559 0.4004791406 1
gene 1 50 69 -0.5469679861 0 568 -0.5469679861 1
gene 1 57 12 0.5051118503 0 635 0.5051118503 1
gene 1 69 57 -0.4462721641 0 668 -0.4462721641 1
gene 1 39 39 -0.03067110202 1 689 -0.03067110202 1
genomeend 36
/* Novelty: -431602080 Fitness: 12.66912079 Generation: 0 Indiv: 8536 */
/* Point: */
genomestart 37
trait 1 0.4780166593 0.1707999788 0.3949591015 0.3357873904 0.05699522385 0.2155977718 0.1184916894 0 
node 1 1 1 1 0.1 0.03654896695 1
node 2 1 1 3 0.1 1.175231178 1
node 3 1 0 0 0.1486770226 2.332230598 0
node 4 1 0 0 0.1712240974 1.448878445 1
node 10 1 0 2 0.2944761498 -2.442567217 1
node 11 1 0 2 0.199734489 2.519083224 1
node 12 1 0 2 0.2018646809 1.681960509 1
node 13 1 0 0 0.3226569414 0.08816797388 1
node 14 1 0 0 0.5504409925 -0.09812921537 1
node 15 1 0 0 0.2110202338 -0.252967925 1
node 16 1 0 0 0.8681508835 -0.1337260048 1
node 18 1 0 0 1.074846644 -1.521921445 0
node 21 1 0 0 0.4156773583 -0.2635395367 1
node 22 1 0 0 0.9432752464 1.544157231 3
node 24 1 0 0 0.40610065 -0.3143955809 1
node 30 1 0 0 0.3757347331 0.09730521561 1
node 35 1 0 0 0.5242683187 -0.3306619465 1
node 39 1 0 0 0.7122318186 0.8385876034 1
node 41 1 0 0 0.5259529405 -1.451460311 1
node 44 1 0 0 0.3041505173 0 1
node 50 1 0 0 0.1008789331 0.06919156468 1
node 57 1 0 0 0.832084109 -0.1201086459 1
node 60 1 0 0 0.114209418 0.3089815973 0
node 64 1 0 0 0.1607318339 2.071913816 2
node 65 1 0 0 0.7600543229 -0.1086642048 2
node 69 1 0 0 0.2381389813 1.568218024 3
node 71 1 0 0 0.3744346446 0.3463118381 1
node 79 1 0 0 0.3019104587 1.793633839 1
node 82 1 0 0 0.1 1.671956542 3
gene 1 1 3 -0.7203131199 0 24 -0.7203131199 1
gene 1 2 3 4.345059435 0 25 4.345059435 1
gene 1 2 4 0.2587607196 0 37 0.2587607196 1
gene 1 3 4 -2.068010498 0 38 -2.068010498 1
gene 1 2 10 -2.417981506 0 109 -2.417981506 1
gene 1 3 10 -3.197874386 0 110 -3.197874386 1
gene 1 4 10 1.600146489 0 111 1.600146489 1
gene 1 1 11 1.550111393 0 120 1.550111393 1
gene 1 3 11 -1.778134251 0 122 -1.778134251 0
gene 1 4 11 -1.730094302 0 123 -1.730094302 1
gene 1 1 12 -0.9068250832 0 132 -0.9068250832 1
gene 1 2 12 -5 0 133 -5 1
gene 1 3 12 -3.191778314 0 134 -3.191778314 1
gene 1 4 12 3.537629322 0 135 3.537629322 1
gene 1 1 13 -0.283333842 0 139 -0.283333842 1
gene 1 13 11 -1.503511917 0 140 -1.503511917 1
gene 1 4 14 0.63984344 0 141 0.63984344 1
gene 1 14 12 1.052278207 0 142 1.052278207 1
gene 1 11 10 -1.926175726 0 145 -1.926175726 1
gene 1 1 15 1.342738121 0 146 1.342738121 1
gene 1 15 12 -4.119388409 0 147 -4.119388409 1
gene 1 3 16 2.574312571 0 149 2.574312571 1
gene 1 16 11 1.179361858 0 150 1.179361858 1
gene 1 3 18 -1.122333445 0 154 -1.122333445 1
gene 1 18 4 0.5844294565 0 155 0.5844294565 1
gene 1 1 4 -0.5514999847 0 160 0 1
gene 1 12 10 0.5429548021 0 171 0.5429548021 1
gene 1 11 12 3.489120151 0 181 3.489120151 1
gene 1 3 21 -0.2295907468 0 185 -0.2295907468 1
gene 1 21 10 -2.310994293 0 186 -2.310994293 1
gene 1 11 22 1.296578875 0 187 1.296578875 1
gene 1 22 10 4.303567614 0 188 4.303567614 1
gene 1 3 24 5 0 192 5 1
gene 1 24 12 0.756859035 0 193 0.756859035 1
gene 1 12 12 -2.819223609 1 207 -2.819223609 1
gene 1 13 13 -1.725821711 1 226 -1.725821711 1
gene 1 13 22 3.615710929 0 241 3.615710929 1
gene 1 2 13 -2.122180853 0 252 -2.122180853 1
gene 1 3 3 -1.063951537 1 259 -1.063951537 1
gene 1 18 30 1 0 261 0 1
gene 1 30 4 0.1753288369 0 262 0 1
gene 1 13 35 0.1943876461 0 285 0.1943876461 1
gene 1 35 22 0.8701528977 0 286 0.8701528977 1
gene 1 3 13 0.3060090945 0 289 0 1
gene 1 13 12 5 0 298 5 1
gene 1 1 22 2.015259255 0 307 2.015259255 1
gene 1 11 14 2.280800806 0 325 2.280800806 1
gene 1 12 39 2.411633656 1 326 2.411633656 1
gene 1 39 12 -3.581415754 0 327 -3.581415754 1
gene 1 12 41 -0.9681997131 1 342 -0.9681997131 1
gene 1 41 39 1.151084933 0 343 1.151084933 0
gene 1 39 44 0.1767021699 0 358 0.1767021699 1
gene 1 44 12 0.2214880825 0 359 0.2214880825 1
gene 1 21 50 0.4180883206 0 382 0.4180883206 1
gene 1 50 10 0.9616382336 0 383 0.9616382336 1
gene 1 41 57 2.485793634 0 425 2.485793634 1
gene 1 57 39 1.770555132 0 426 1.770555132 1
gene 1 4 15 1.176961577 0 429 1.176961577 1
gene 1 10 10 -1.873836482 1 434 -1.873836482 1
gene 1 10 16 0.6538590655 0 435 0.6538590655 1
gene 1 41 41 2.664708396 1 440 2.664708396 1
gene 1 12 21 1.457182531 0 441 1.457182531 1
gene 1 14 60 -0.9203009125 0 442 -0.9203009125 1
gene 1 60 12 0.4925115207 0 443 0.4925115207 1
gene 1 14 14 1.33538316 1 445 1.33538316 1
gene 1 21 21 -1.009506516 1 446 -1.009506516 1
gene 1 60 60 -0.4173863948 1 450 -0.4173863948 1
gene 1 22 22 0.394573809 1 455 0.394573809 1
gene 1 10 41 0.1336558123 0 462 0.1336558123 1
gene 1 16 14 2.414502396 0 463 2.414502396 1
gene 1 41 22 1.705298013 0 472 1.705298013 1
gene 1 4 4 -1.55713065 1 473 -1.55713065 1
gene 1 60 64 5 1 474 5 1
gene 1 64 60 0.8785454878 0 475 0.8785454878 1
gene 1 15 65 -2.116855373 0 476 -2.116855373 1
gene 1 65 12 -2.446676534 0 477 -2.446676534 1
gene 1 2 60 -4.885784478 0 480 -4.885784478 1
gene 1 15 69 1 0 498 1 1
gene 1 69 65 -0.6350566118 0 499 0 1
gene 1 16 71 -0.1461836604 0 513 -0.1461836604 1
gene 1 71 14 0.1625873592 0 514 0.1625873592 1
gene 1 57 57 0.8449659719 1 516 0.8449659719 1
gene 1 35 35 -1.763893551 1 519 -1.763893551 1
gene 1 11 50 0.4124729148 0 522 0.4124729148 1
gene 1 13 79 2.274300363 0 544 2.274300363 1
gene 1 79 12 -1.077655873 0 545 -1.077655873 1
gene 1 10 82 -1.923963134 0 558 -1.923963134 1
gene 1 82 41 0.4004791406 0 559 0.4004791406 1
gene 1 50 69 -0.5469679861 0 568 -0.5469679861 1
gene 1 57 12 0.5051118503 0 635 0.5051118503 1
gene 1 69 57 -0.4462721641 0 668 -0.4462721641 1
gene 1 39 39 -0.03067110202 1 689 -0.03067110202 1
genomeend 37
/* Novelty: -431602080 Fitness: 12.66912079 Generation: 0 Indiv: 8587 */
/* Point: */
genomestart 48
trait 1 0.4780166593 0.1707999788 0.3949591015 0.3357873904 0.05699522385 0.2155977718 0.1184916894 0 
node 1 1 1 1 0.1 0.2200994903 1
node 2 1 1 3 0.1 1.175231178 1
node 3 1 0 0 0.2592455824 2.557664724 0
node 4 1 0 0 0.1712240974 1.448878445 1
node 10 1 0 2 0.2944761498 -2.442567217 1
node 11 1 0 2 0.1679342021 2.615448469 1
node 12 1 0 2 0.2199255348 1.637781915 1
node 13 1 0 0 0.4619312113 0.2080446791 1
node 14 1 0 0 0.5504409925 0.05064241462 1
node 15 1 0 0 0.2110202338 -0.252967925 1
node 16 1 0 0 0.9026856288 -0.1337260048 1
node 18 1 0 0 1.074846644 -1.521921445 0
node 21 1 0 0 0.3453382977 -0.163206885 1
node 22 1 0 0 0.9432752464 1.544157231 3
node 24 1 0 0 0.3135868404 -0.3143955809 1
node 30 1 0 0 0.3979216895 -0.07002777184 1
node 35 1 0 0 0.5242683187 -0.4002685629 1
node 39 1 0 0 0.7122318186 0.8385876034 1
node 41 1 0 0 0.5990020447 -1.451460311 1
node 44 1 0 0 0.1236030152 0 1
node 50 1 0 0 0.1008789331 0.2472853786 1
node 57 1 0 0 0.5433240761 -0.1201086459 1
node 60 1 0 0 0.1 0.3089815973 0
node 64 1 0 0 0.1607318339 2.071913816 2
node 65 1 0 0 0.8216162603 -0.1086642048 2
node 69 1 0 0 0.2381389813 1.635511338 3
node 71 1 0 0 0.3744346446 0.3463118381 1
node 79 1 0 0 0.4026520585 1.793633839 1
node 82 1 0 0 0.1 1.671956542 3
gene 1 1 3 -0.7203131199 0 24 -0.7203131199 1
gene 1 2 3 4.345059435 0 25 4.345059435 1
gene 1 2 4 0.2587607196 0 37 0.2587607196 1
gene 1 3 4 -2.068010498 0 38 -2.068010498 1
gene 1 2 10 -2.417981506 0 109 -2.417981506 1
gene 1 3 10 -3.197874386 0 110 -3.197874386 1
gene 1 4 10 1.600146489 0 111 1.600146489 1
gene 1 1 11 1.550111393 0 120 1.550111393 1
gene 1 3 11 -1.778134251 0 122 -1.778134251 1
gene 1 4 11 -1.730094302 0 123 -1.730094302 1
gene 1 1 12 -0.9068250832 0 132 -0.9068250832 1
gene 1 2 12 -5 0 133 -5 1
gene 1 3 12 -3.191778314 0 134 -3.191778314 1
gene 1 4 12 3.537629322 0 135 3.537629322 1
gene 1 1 13 -0.283333842 0 139 -0.283333842 1
gene 1 13 11 -1.503511917 0 140 -1.503511917 1
gene 1 4 14 0.63984344 0 141 0.63984344 1
gene 1 14 12 1.052278207 0 142 1.052278207 1
gene 1 11 10 -1.926175726 0 145 -1.926175726 1
gene 1 1 15 1.342738121 0 146 1.342738121 1
gene 1 15 12 -4.119388409 0 147 -4.119388409 1
gene 1 3 16 2.574312571 0 149 2.574312571 1
gene 1 16 11 1.179361858 0 150 1.179361858 1
gene 1 3 18 -1.122333445 0 154 -1.122333445 1
gene 1 18 4 0.5844294565 0 155 0.5844294565 1
gene 1 1 4 -0.5514999847 0 160 0 1
gene 1 12 10 0.5429548021 0 171 0.5429548021 1
gene 1 11 12 3.489120151 0 181 3.489120151 1
gene 1 3 21 -0.2295907468 0 185 -0.2295907468 1
gene 1 21 10 -2.310994293 0 186 -2.310994293 1
gene 1 11 22 1.296578875 0 187 1.296578875 1
gene 1 22 10 4.303567614 0 188 4.303567614 1
gene 1 3 24 5 0 192 5 1
gene 1 24 12 0.756859035 0 193 0.756859035 1
gene 1 12 12 -2.819223609 1 207 -2.819223609 1
gene 1 13 13 -1.725821711 1 226 -1.725821711 1
gene 1 13 22 3.615710929 0 241 3.615710929 1
gene 1 2 13 -2.122180853 0 252 -2.122180853 1
gene 1 3 3 -1.063951537 1 259 -1.063951537 1
gene 1 18 30 1 0 261 0 1
gene 1 30 4 0.1753288369 0 262 0 1
gene 1 13 35 0.1943876461 0 285 0.1943876461 1
gene 1 35 22 0.8701528977 0 286 0.8701528977 1
gene 1 3 13 0.3060090945 0 289 0 1
gene 1 13 12 5 0 298 5 1
gene 1 1 22 2.015259255 0 307 2.015259255 1
gene 1 11 14 2.280800806 0 325 2.280800806 1
gene 1 12 39 2.411633656 1 326 2.411633656 1
gene 1 39 12 -3.581415754 0 327 -3.581415754 1
gene 1 12 41 -0.9681997131 1 342 -0.9681997131 1
gene 1 41 39 1.151084933 0 343 1.151084933 0
gene 1 39 44 0.1767021699 0 358 0.1767021699 1
gene 1 44 12 0.2214880825 0 359 0.2214880825 1
gene 1 21 50 0.4180883206 0 382 0.4180883206 1
gene 1 50 10 0.9616382336 0 383 0.9616382336 1
gene 1 41 57 2.485793634 0 425 2.485793634 1
gene 1 57 39 1.770555132 0 426 1.770555132 1
gene 1 4 15 1.176961577 0 429 1.176961577 1
gene 1 10 10 -1.873836482 1 434 -1.873836482 1
gene 1 10 16 0.6538590655 0 435 0.6538590655 1
gene 1 41 41 2.664708396 1 440 2.664708396 1
gene 1 12 21 1.457182531 0 441 1.457182531 1
gene 1 14 60 -0.9203009125 0 442 -0.9203009125 1
gene 1 60 12 0.4925115207 0 443 0.4925115207 1
gene 1 14 14 1.33538316 1 445 1.33538316 1
gene 1 21 21 -1.009506516 1 446 -1.009506516 1
gene 1 60 60 -0.4173863948 1 450 -0.4173863948 1
gene 1 22 22 0.394573809 1 455 0.394573809 1
gene 1 10 41 0.1336558123 0 462 0.1336558123 1
gene 1 16 14 2.414502396 0 463 2.414502396 1
gene 1 41 22 1.705298013 0 472 1.705298013 1
gene 1 4 4 -1.55713065 1 473 -1.55713065 1
gene 1 60 64 5 1 474 5 1
gene 1 64 60 0.8785454878 0 475 0.8785454878 1
gene 1 15 65 -2.116855373 0 476 -2.116855373 1
gene 1 65 12 -2.446676534 0 477 -2.446676534 1
gene 1 2 60 -4.885784478 0 480 -4.885784478 1
gene 1 15 69 1 0 498 1 1
gene 1 69 65 -0.6350566118 0 499 0 1
gene 1 16 71 -0.1461836604 0 513 -0.1461836604 1
gene 1 71 14 0.1625873592 0 514 0.1625873592 1
gene 1 57 57 0.8449659719 1 516 0.8449659719 1
gene 1 35 35 -1.763893551 1 519 -1.763893551 1
gene 1 11 50 0.4124729148 0 522 0.4124729148 1
gene 1 13 79 2.274300363 0 544 2.274300363 1
gene 1 79 12 -1.077655873 0 545 -1.077655873 1
gene 1 10 82 -1.923963134 0 558 -1.923963134 1
gene 1 82 41 0.4004791406 0 559 0.4004791406 1
gene 1 50 69 -0.5469679861 0 568 -0.5469679861 1
gene 1 57 12 0.5051118503 0 635 0.5051118503 1
gene 1 69 57 -0.4462721641 0 668 -0.4462721641 1
gene 1 39 39 -0.03067110202 1 689 -0.03067110202 1
genomeend 48
/* Novelty: -431602080 Fitness: 12.66912079 Generation: 0 Indiv: 8648 */
/* Point: */
